digraph Tree {
node [shape=box] ;
0 [label="walk <= 33.5\nentropy = 0.9608\nsamples = 375\nvalue = [144, 231]"] ;
1 [label="view <= 7.5\nentropy = 0.3175\nsamples = 226\nvalue = [13, 213]"] ;
0 -> 1 [labeldistance=2.5, labelangle=45, headlabel="True"] ;
2 [label="entropy = 0.0\nsamples = 132\nvalue = [0, 132]"] ;
1 -> 2 ;
3 [label="entropy = 0.5798\nsamples = 94\nvalue = [13, 81]"] ;
1 -> 3 ;
4 [label="walk <= 39.5\nentropy = 0.5317\nsamples = 149\nvalue = [131, 18]"] ;
0 -> 4 [labeldistance=2.5, labelangle=-45, headlabel="False"] ;
5 [label="entropy = 0.7856\nsamples = 64\nvalue = [49, 15]"] ;
4 -> 5 ;
6 [label="entropy = 0.2203\nsamples = 85\nvalue = [82, 3]"] ;
4 -> 6 ;
}